{"layers":[{"0":{},"1":{},"2":{},"3":{},"4":{},"5":{},"6":{},"7":{},"8":{},"9":{},"10":{},"11":{},"12":{},"13":{},"14":{},"15":{},"16":{},"17":{},"18":{},"19":{},"20":{}},{"0":{"bias":-3.6189402229192287,"weights":{"0":-0.9114235729251268,"1":3.2316619611248365,"2":0.6211963981431391,"3":1.1900186405428586,"4":-1.110675594056443,"5":-1.1529921423003284,"6":-0.9090740247909737,"7":1.336277789585476,"8":-0.994545328036651,"9":4.138218859400084,"10":-2.0749352290193093,"11":1.473801522098798,"12":-0.21292626894889752,"13":1.2872723055916067,"14":-3.9561581723729717,"15":2.346159547954227,"16":-1.583104312067327,"17":2.364197097764659,"18":-1.630952284260068,"19":-0.7200820132226624,"20":-0.4293412944569931}},"1":{"bias":-0.4381157796457267,"weights":{"0":-0.38386055419822196,"1":-0.14074048272661915,"2":-0.44801690113399917,"3":-0.22057305285858175,"4":-0.23534884464630795,"5":0.07353199310947876,"6":0.19353798934522462,"7":0.0427323345016482,"8":-0.7065056862748785,"9":-0.30805728301098506,"10":-0.6983625985443769,"11":-0.1440429831670588,"12":-0.16230848040990306,"13":0.2210813924056603,"14":-1.2364603720362868,"15":-0.28201278712735406,"16":-0.6455070284077781,"17":-0.3715785633016854,"18":-0.21960642940269073,"19":0.0847694872723199,"20":-0.04410760900343712}},"2":{"bias":-3.7272940544695587,"weights":{"0":-2.9100543894829536,"1":5.672427597227773,"2":0.4549200373297155,"3":-0.96876641923933,"4":3.529802576867797,"5":1.9303855513502763,"6":1.1252476308580925,"7":-5.120500863871588,"8":4.313545229427357,"9":2.0062957693741343,"10":3.782353610490521,"11":2.537707854250284,"12":4.139821941363124,"13":-1.8894119866799992,"14":-2.973503301667231,"15":4.44293697344359,"16":1.6625600068601427,"17":-1.9071218540307442,"18":-1.4231942231405055,"19":1.3531149285426307,"20":3.004522960739063}},"3":{"bias":-1.2463719181204802,"weights":{"0":-0.29063903825202997,"1":0.5254659695174316,"2":-0.003994008467527344,"3":0.6014357512269325,"4":-0.013568012850273469,"5":-0.405811999435091,"6":-0.48221650382579545,"7":-0.2046996229874373,"8":-0.23399644277418571,"9":0.6935378353487498,"10":-0.1710539404055631,"11":0.8940688688754035,"12":-0.47509498515814014,"13":0.7882081235661185,"14":-1.4541325527717983,"15":-0.10487467135297551,"16":-0.3465218541485757,"17":0.08910821336932005,"18":-0.3525709207241076,"19":-0.5248041172410567,"20":-0.1362731416644825}},"4":{"bias":-0.8034241264580707,"weights":{"0":0.14656264989561973,"1":0.07568710909036755,"2":-0.06033844943868028,"3":-0.4788768827829556,"4":0.5777028507690015,"5":-0.8885729289194636,"6":-0.5710515127490372,"7":-1.1118176416776955,"8":0.1154704808444492,"9":-0.2270251462303759,"10":0.03280444191825345,"11":0.43537722599240114,"12":-0.8026053751069172,"13":0.35348781337472934,"14":0.30497218440834223,"15":-1.2353702886254823,"16":0.2309848677183207,"17":-0.14823426235935552,"18":-0.3300653897364308,"19":-0.8352529900089519,"20":-0.49265023410277725}},"5":{"bias":-0.892058593687822,"weights":{"0":0.30553340104945725,"1":2.004440915488518,"2":2.8810152642173104,"3":0.8066172026429155,"4":-0.3003253542285527,"5":0.17357491149271445,"6":0.6705869059194258,"7":-2.9927650619856787,"8":-0.8518225242010926,"9":-1.178116749110948,"10":1.701398494570719,"11":-0.5343720217449587,"12":1.1717099477589685,"13":-0.7206239686045603,"14":-0.23709502130878168,"15":-3.3606613479834904,"16":-1.739206513007691,"17":-0.3473880329367261,"18":0.2193493989647787,"19":0.4267693530145673,"20":0.5889944496643362}},"6":{"bias":-0.7519423805728805,"weights":{"0":-4.517652551039769,"1":3.7211053228178854,"2":-2.5455950686027906,"3":0.7442621947180484,"4":-1.248794102011002,"5":-1.1557683237527185,"6":-0.5432409481458198,"7":-4.082363620253844,"8":1.1727691265032443,"9":1.7304685831658686,"10":0.8182056360020105,"11":1.9994927153531807,"12":-1.1040462989394344,"13":1.5554205939428014,"14":-1.0982508983002002,"15":3.2989217716759343,"16":-4.304235327488355,"17":2.3841336815372935,"18":-1.2310738035912765,"19":-0.6229927030657793,"20":-1.2088017851624555}},"7":{"bias":-1.2106529295631125,"weights":{"0":0.29382213769704935,"1":0.5961537677765057,"2":-1.001226417427117,"3":-0.28785389055024335,"4":-0.7409620754235836,"5":-0.72365312489277,"6":-0.4406564979864332,"7":-0.6945039452659661,"8":1.7656383073254651,"9":-0.8213257926003273,"10":0.4309371636895498,"11":0.7864650891242148,"12":-1.2867705709474913,"13":0.880249132361363,"14":-0.4941986367650221,"15":-1.9052785463289683,"16":1.2082316363633094,"17":0.06853302985235724,"18":-1.4784168949160472,"19":-0.8348678746044441,"20":-0.5405662439506664}},"8":{"bias":-3.7596050806847137,"weights":{"0":4.970854556565605,"1":-2.7678522103893126,"2":1.9154243714568104,"3":-2.304587155375606,"4":3.789216749132193,"5":0.9920293293978767,"6":-1.547652085764136,"7":-1.6456240645177338,"8":-2.189051476154032,"9":-0.7628626273119199,"10":-1.2066759246141963,"11":1.9447017821150667,"12":-1.2888399018720906,"13":0.38786830492613744,"14":1.2575686127886578,"15":-1.4664003362241376,"16":2.618977847566307,"17":-5.044041218087882,"18":0.32250302521719476,"19":-2.708538604089856,"20":-0.7309378186780803}},"9":{"bias":0.6423512968294999,"weights":{"0":0.5144027697371731,"1":-0.8803029250946762,"2":-1.1697008712965786,"3":-0.41224929057882254,"4":-0.5840518778699584,"5":0.2187155600878365,"6":-0.11383257768877052,"7":0.8571610260535665,"8":-1.8422548162542394,"9":-0.2046164813327401,"10":-1.370646327108984,"11":-0.2435336778169545,"12":-0.4106773751205201,"13":0.19770530277542342,"14":-1.4296050520272163,"15":-0.149943905017354,"16":-0.7952316556274561,"17":-0.5275808211236361,"18":-0.9538794869771079,"19":0.025584544750298786,"20":0.18139452746353196}}},{"0":{"bias":-0.11016295586405248,"weights":{"0":-4.225684124631065,"1":1.2046161049758537,"2":4.729745010884899,"3":-0.4779753518729822,"4":-0.8849671058502246,"5":2.4832270557258034,"6":-7.040735634138261,"7":-1.7314035182206486,"8":-5.381208780499712,"9":2.122555295704766}}}],"outputLookup":false,"inputLookup":false}