{"layers":[{"0":{},"1":{},"2":{},"3":{},"4":{},"5":{},"6":{},"7":{},"8":{},"9":{},"10":{},"11":{},"12":{},"13":{},"14":{},"15":{},"16":{},"17":{},"18":{},"19":{},"20":{}},{"0":{"bias":-3.851061777264047,"weights":{"0":-0.3032093614892517,"1":1.1833597715388378,"2":2.203428980623547,"3":1.2186959028498157,"4":1.6287640113781785,"5":0.012261653551583979,"6":0.8728378081361778,"7":-2.4164845338034042,"8":0.9719672198119681,"9":0.7864443689646355,"10":2.207194827347864,"11":0.5677225322887187,"12":2.929768311247925,"13":-2.466711867794421,"14":-0.09973285902305835,"15":0.7586334176310582,"16":0.8898627615466006,"17":-2.5318839545762843,"18":-0.5012324393100164,"19":0.4554933746770139,"20":1.0827104428978278}},"1":{"bias":-0.4806035030260666,"weights":{"0":-0.4692134543554774,"1":-0.5136815394816766,"2":-0.3825129719829058,"3":-0.04154297505461927,"4":-0.03888611736729148,"5":-0.055158158184689984,"6":-0.36811755642261,"7":-0.018708836990134273,"8":0.04385261252952104,"9":-0.07224402665245155,"10":-0.016340272135052267,"11":-0.14746797466996384,"12":-0.5115132705741424,"13":0.4717421959242586,"14":-0.6148222372548007,"15":-0.5579844788872299,"16":-0.5739921909991159,"17":-0.1931226430134966,"18":-0.4986083603336359,"19":-0.31026006072423107,"20":-0.11287071359378925}},"2":{"bias":-0.7820217538772896,"weights":{"0":-0.7366494914086624,"1":0.4944664792584028,"2":0.31866029085384184,"3":-0.07213748691716342,"4":0.2187346275662239,"5":-0.011808484013627567,"6":0.5300315357399499,"7":0.9090233598496679,"8":-0.9290762436576543,"9":1.7567853335648955,"10":-1.6933742254744135,"11":1.3746969440113568,"12":0.5782718638164892,"13":-0.896636790526302,"14":-1.455296613926511,"15":-1.0514125165358807,"16":-0.9981277411054961,"17":-0.9421158946068929,"18":-0.03432734031931436,"19":0.008549787086879992,"20":0.3645536413412159}},"3":{"bias":-0.19427630360075754,"weights":{"0":0.03605230019313099,"1":-0.5096461964430178,"2":-0.10252859990318086,"3":-0.1734759129296976,"4":-0.44909353653168665,"5":-0.15087231149251762,"6":-0.3604864982648514,"7":-0.4392793130569037,"8":0.04756460654529764,"9":-0.7081444324791415,"10":-0.23372207886743318,"11":-0.21637408793827112,"12":-0.6129273789234527,"13":0.2640822758072142,"14":-1.0279924940768934,"15":-0.9662351862712052,"16":-0.7133392710250935,"17":-0.24933579689527524,"18":-0.5593590346771404,"19":-0.2937581908702458,"20":-0.17477549942575263}},"4":{"bias":-0.9827772658135332,"weights":{"0":0.05999889914288785,"1":0.6876129323918149,"2":0.19934900869406535,"3":-0.16444123842906155,"4":-0.44162984160762364,"5":-0.2483150504775461,"6":-0.7287735976979935,"7":-1.6500088189098905,"8":-0.6791837093169281,"9":-0.4245201535542401,"10":-1.0238647382626518,"11":0.8720956407235101,"12":-1.1341096840746328,"13":1.3761551970417019,"14":-1.8043367786274063,"15":-0.9865599911786728,"16":-0.46893573761892965,"17":0.36817876351255013,"18":-0.8370803956572141,"19":-0.6365634001619963,"20":-0.32860574864429454}},"5":{"bias":-2.568722076023313,"weights":{"0":-0.15835658548911583,"1":0.7073581505828436,"2":-0.03940385225298654,"3":-0.06129575300905001,"4":-0.29133005645076665,"5":0.03585762523751253,"6":-0.6818118149604179,"7":0.27381245356509215,"8":-0.7583003263422581,"9":1.8388189528237155,"10":-1.5255998573672405,"11":1.285583523772947,"12":-1.4696158241736645,"13":1.8973667417082083,"14":-0.40485250546054385,"15":-0.25834518624837327,"16":0.411688921421968,"17":1.4350694992993478,"18":-1.8868068460637644,"19":-0.9307481149881203,"20":-0.32577960579775106}},"6":{"bias":-2.9638790854980854,"weights":{"0":-1.7721035224814257,"1":1.6837643884546247,"2":1.0443497460002151,"3":0.7974857718824151,"4":0.25173975661481257,"5":1.449097901887242,"6":1.0485302981775433,"7":-3.024875722855867,"8":0.9115724699794792,"9":-0.08251964981466803,"10":1.1676854155781657,"11":-0.5223897433157529,"12":2.499356678492668,"13":-1.9875563317075513,"14":1.1646703057228904,"15":1.253769232299725,"16":1.4423062573839027,"17":-1.2129057072821572,"18":-0.8002211993456935,"19":0.6059734052882731,"20":1.5167151855932197}},"7":{"bias":-0.6659969365509303,"weights":{"0":-0.6093646424491838,"1":-0.113570389918057,"2":0.05485400231151884,"3":-0.055170047334429526,"4":0.005061534953035495,"5":-0.059795647613938165,"6":0.18172788484784877,"7":-0.3719908690766843,"8":-0.35001168546951633,"9":0.1233908197182085,"10":-0.3281913293314822,"11":0.13680474211674418,"12":-0.25387482485075663,"13":-0.028624124596878808,"14":-0.2888172499489817,"15":-0.28769897093787944,"16":-0.4421501346353708,"17":-0.2651391824826504,"18":-0.3633667620977832,"19":-0.0314330966127737,"20":-0.181403971137325}},"8":{"bias":-5.934807131411456,"weights":{"0":0.837472133310854,"1":1.229830807616362,"2":1.7151349135209153,"3":1.8297719642690995,"4":1.8802590416177554,"5":1.317239288132288,"6":-2.7037360944366173,"7":-1.5787675168277757,"8":-3.045644419339247,"9":5.5602986702053885,"10":-2.4318778460746038,"11":5.719623194017565,"12":-1.0734018994641663,"13":3.6321698523343793,"14":1.0550357909859298,"15":1.3126908892785263,"16":1.1646438923146083,"17":-3.834597688950763,"18":-1.699719788623918,"19":-0.8441137449520566,"20":-0.15689351100110221}},"9":{"bias":-2.0898263764207687,"weights":{"0":0.4199714578205046,"1":0.7007558463337599,"2":0.6259764126799373,"3":-0.43945228446122825,"4":-0.5490770561211622,"5":0.2038995908958232,"6":-0.8074351552708734,"7":0.6132312432293566,"8":-0.6056368493735113,"9":1.4637506789432122,"10":-2.0860832700774816,"11":0.655183593192975,"12":-1.213523594586817,"13":1.036311497801155,"14":-0.8827035430352154,"15":-0.8181285278838872,"16":0.4591329548837298,"17":1.6769246933249444,"18":-1.6130772096608215,"19":-0.8909668592732803,"20":-0.45735262877978833}}},{"0":{"bias":0.13155901043274676,"weights":{"0":3.676332738147023,"1":-0.8795286209273226,"2":2.3625674372456746,"3":-1.3641672583381423,"4":-1.8976031561561593,"5":-1.7351779578387803,"6":3.0837212487695527,"7":-0.12051966961912743,"8":-5.575610097420418,"9":-1.541141181118907}}}],"outputLookup":false,"inputLookup":false}