{"layers":[{"0":{},"1":{},"2":{},"3":{},"4":{},"5":{},"6":{},"7":{},"8":{},"9":{},"10":{},"11":{},"12":{},"13":{},"14":{},"15":{},"16":{},"17":{},"18":{},"19":{},"20":{}},{"0":{"bias":-1.5751327807834081,"weights":{"0":1.7602799970907228,"1":0.21009865689792684,"2":0.5588595810624194,"3":0.14032209136291451,"4":-0.7582598125290582,"5":0.2616976679744304,"6":0.06192889498061207,"7":0.9300892735589696,"8":0.023240489693123506,"9":0.20893300091666264,"10":-0.8435661367865895,"11":0.7503922751065794,"12":-0.07581567222227109,"13":0.16895082375550194,"14":-5.5230619298309875,"15":-2.5079913946257455,"16":-5.521724826681038,"17":-1.1821993375044297,"18":-0.38495850239662865,"19":-0.12248823641841339,"20":-0.17959053717297102}},"1":{"bias":-2.384387511318024,"weights":{"0":2.527476617086572,"1":0.5867051223883272,"2":-0.024677641202402217,"3":0.2090053863743238,"4":-0.03349069524394943,"5":-0.5597218178520976,"6":-0.07808310403763043,"7":-1.3281342607774849,"8":-0.33091422047883934,"9":-0.7064340175634055,"10":0.4659529492542032,"11":0.25439525329187246,"12":-0.10382437855385142,"13":0.1900677572528473,"14":-3.1215233064441303,"15":-1.5716037886912586,"16":-5.874857276316647,"17":-2.077104951550925,"18":-0.6106831321502093,"19":-0.15854003448767132,"20":0.18670646916311137}},"2":{"bias":-1.6266837430467895,"weights":{"0":2.559133793544842,"1":0.42005982838683786,"2":0.19178212929086297,"3":-0.3580150469480096,"4":0.0002268767883486974,"5":-0.10040642189214206,"6":-0.14807309961724183,"7":-2.6237243310096536,"8":-0.1729999123561159,"9":-1.5376632709137839,"10":-0.38415377138937923,"11":-0.3580227535649611,"12":0.22688375822229023,"13":-0.043111350104743575,"14":-3.387970801664246,"15":-1.0614941142875904,"16":-5.804936253423725,"17":-1.6579993584599255,"18":-0.5613285345532526,"19":-0.26471606782234225,"20":-0.17559110724359742}},"3":{"bias":-2.0381468497638444,"weights":{"0":2.193032232788888,"1":0.18923778711729375,"2":-0.0032574009275222037,"3":0.18176541368856367,"4":0.004902964970685859,"5":-0.2968060204117672,"6":0.17218800242089471,"7":-0.8611476127940485,"8":-0.0011439526146165288,"9":-2.496588870477363,"10":-1.5095257900330084,"11":-0.9233994364328163,"12":-2.4671644085165183,"13":-0.09485723391775638,"14":-3.0264232887015132,"15":-1.5588529191650828,"16":-9.25478715116681,"17":-2.2632553213015023,"18":-0.865225792213576,"19":-0.038507799217302754,"20":0.11959366238991893}},"4":{"bias":-1.7554273172348118,"weights":{"0":1.239210229137962,"1":-1.2736708962260914,"2":-1.3699032474297654,"3":-2.0359845046244707,"4":-0.9150539395942742,"5":-0.3374140771131873,"6":0.049287381681293964,"7":1.9007696497584248,"8":-0.983407103465794,"9":-0.7293990724177694,"10":-1.369418322735886,"11":-3.8544204613800876,"12":-0.9585534776997836,"13":-0.10358128776483551,"14":1.3687255738686768,"15":-9.087897498928196,"16":-2.8320110379221513,"17":-2.849258662674642,"18":-1.4614406489665455,"19":-0.5436461813792031,"20":-0.04041771295406523}},"5":{"bias":0.2779295115354569,"weights":{"0":-2.330569564361892,"1":-0.4591603239328386,"2":0.15781600440793028,"3":0.02255170588939347,"4":0.26041760142362375,"5":-0.7416824325865178,"6":-0.03778836525164756,"7":-0.8103432637242527,"8":1.5662877353378653,"9":1.317285526684099,"10":-1.1921926831701057,"11":-0.3026999759317725,"12":0.2071238431119392,"13":-0.15153082575767507,"14":6.560265138048038,"15":1.552661597658431,"16":5.573950524391565,"17":0.9369169059967815,"18":0.6392651024220953,"19":0.42715446760286596,"20":0.1846987097656202}},"6":{"bias":0.15364549163914015,"weights":{"0":1.3958929427428037,"1":0.9006520663443203,"2":-0.00883861974071618,"3":-0.46299480967860507,"4":-0.12223820785685408,"5":0.25790763615830714,"6":-0.05720932877402521,"7":0.7436340404990939,"8":0.9217851791729014,"9":0.37886601310682055,"10":-0.6263578173188216,"11":0.22348478273972552,"12":0.16242062349088054,"13":0.05377965975201514,"14":-8.537080366229345,"15":-3.95990585295844,"16":-4.79339578984285,"17":-0.847673223638439,"18":-0.34132364658000836,"19":-0.1597565752643359,"20":0.0613785732004381}},"7":{"bias":-1.9655197776132813,"weights":{"0":2.286965941880679,"1":0.4767924690102713,"2":0.3345204962586802,"3":0.08618164411946931,"4":0.5044077007832847,"5":-0.22708451483947106,"6":0.16036459693943297,"7":-0.4322343868578349,"8":-0.06223565737685533,"9":-1.0310882203796004,"10":0.16866282136439345,"11":1.0423873878782919,"12":-0.07568675664557145,"13":-0.12093993573559757,"14":-4.253900678673988,"15":-1.67151584410798,"16":-5.385254356057805,"17":-1.3840519962577906,"18":-0.5211179231614322,"19":-0.03822921292430841,"20":-0.043517951201012046}},"8":{"bias":-0.7159397435587395,"weights":{"0":2.254552891473565,"1":0.3916390895874557,"2":-0.02918623013529538,"3":0.216896582455068,"4":0.12076074830667925,"5":0.1796288209425186,"6":0.12905649295022598,"7":0.39591519493558475,"8":-1.1726199102356019,"9":-1.0066779299200876,"10":0.3262005158920525,"11":0.4129535451515428,"12":0.28896881324208573,"13":0.20566623800497685,"14":-5.124327741777018,"15":-1.8704582101423712,"16":-5.969321807984039,"17":-1.1156124567520003,"18":-0.4549909802188448,"19":-0.15959878025799284,"20":0.11125442335705307}},"9":{"bias":-0.9145951903716621,"weights":{"0":1.5564921433272227,"1":0.3213537140314939,"2":0.5766312364977214,"3":-0.3473754969506733,"4":-1.007840280132931,"5":-0.5909574627810921,"6":0.07362090021024784,"7":-0.7891632103227114,"8":2.067242061275778,"9":0.37468082383175955,"10":-0.3825417610893987,"11":0.23750174040119318,"12":-0.38320117222969213,"13":-0.12000112355200108,"14":-6.671655720410701,"15":-3.8352724249529544,"16":-5.458234236646695,"17":-1.0030271265251542,"18":-0.5690312793777739,"19":-0.019971381236547306,"20":-0.19483946665527996}}},{"0":{"bias":-6.64453751020331,"weights":{"0":-4.445942897188885,"1":-5.794636228877387,"2":-5.293472212617783,"3":-4.953370299190175,"4":-0.9233733123095339,"5":11.065896741034042,"6":-5.937585020187157,"7":-5.311175949184124,"8":-5.031044628065732,"9":-4.38376945415803}}}],"outputLookup":false,"inputLookup":false}